digraph Tree {
node [shape=box, style="rounded", color="black", fontname=helvetica] ;
edge [fontname=helvetica] ;
0 [label=<cp &le; 0.5<br/>gini = 0.496<br/>samples = 212<br/>value = [97, 115]>] ;
1 [label=<oldpeak &le; 0.7<br/>gini = 0.373<br/>samples = 101<br/>value = [76, 25]>] ;
0 -> 1 [labeldistance=2.5, labelangle=45, headlabel="True"] ;
2 [label=<ca &le; 0.5<br/>gini = 0.494<br/>samples = 38<br/>value = [17, 21]>] ;
1 -> 2 ;
3 [label=<chol &le; 174.5<br/>gini = 0.386<br/>samples = 23<br/>value = [6, 17]>] ;
2 -> 3 ;
4 [label=<gini = 0.0<br/>samples = 1<br/>value = [1, 0]>] ;
3 -> 4 ;
5 [label=<gini = 0.351<br/>samples = 22<br/>value = [5, 17]>] ;
3 -> 5 ;
6 [label=<sex &le; 0.5<br/>gini = 0.391<br/>samples = 15<br/>value = [11, 4]>] ;
2 -> 6 ;
7 [label=<gini = 0.0<br/>samples = 2<br/>value = [0, 2]>] ;
6 -> 7 ;
8 [label=<gini = 0.26<br/>samples = 13<br/>value = [11, 2]>] ;
6 -> 8 ;
9 [label=<trestbps &le; 106.0<br/>gini = 0.119<br/>samples = 63<br/>value = [59, 4]>] ;
1 -> 9 ;
10 [label=<gini = 0.0<br/>samples = 1<br/>value = [0, 1]>] ;
9 -> 10 ;
11 [label=<slope &le; 1.5<br/>gini = 0.092<br/>samples = 62<br/>value = [59, 3]>] ;
9 -> 11 ;
12 [label=<gini = 0.0<br/>samples = 53<br/>value = [53, 0]>] ;
11 -> 12 ;
13 [label=<gini = 0.444<br/>samples = 9<br/>value = [6, 3]>] ;
11 -> 13 ;
14 [label=<thal &le; 2.5<br/>gini = 0.307<br/>samples = 111<br/>value = [21, 90]>] ;
0 -> 14 [labeldistance=2.5, labelangle=-45, headlabel="False"] ;
15 [label=<thal &le; 1.5<br/>gini = 0.174<br/>samples = 83<br/>value = [8, 75]>] ;
14 -> 15 ;
16 [label=<ca &le; 0.5<br/>gini = 0.48<br/>samples = 5<br/>value = [3, 2]>] ;
15 -> 16 ;
17 [label=<gini = 0.0<br/>samples = 2<br/>value = [0, 2]>] ;
16 -> 17 ;
18 [label=<gini = 0.0<br/>samples = 3<br/>value = [3, 0]>] ;
16 -> 18 ;
19 [label=<oldpeak &le; 3.55<br/>gini = 0.12<br/>samples = 78<br/>value = [5, 73]>] ;
15 -> 19 ;
20 [label=<gini = 0.098<br/>samples = 77<br/>value = [4, 73]>] ;
19 -> 20 ;
21 [label=<gini = 0.0<br/>samples = 1<br/>value = [1, 0]>] ;
19 -> 21 ;
22 [label=<thalach &le; 150.5<br/>gini = 0.497<br/>samples = 28<br/>value = [13, 15]>] ;
14 -> 22 ;
23 [label=<trestbps &le; 129.0<br/>gini = 0.397<br/>samples = 11<br/>value = [8, 3]>] ;
22 -> 23 ;
24 [label=<gini = 0.0<br/>samples = 5<br/>value = [5, 0]>] ;
23 -> 24 ;
25 [label=<gini = 0.5<br/>samples = 6<br/>value = [3, 3]>] ;
23 -> 25 ;
26 [label=<oldpeak &le; 2.2<br/>gini = 0.415<br/>samples = 17<br/>value = [5, 12]>] ;
22 -> 26 ;
27 [label=<gini = 0.245<br/>samples = 14<br/>value = [2, 12]>] ;
26 -> 27 ;
28 [label=<gini = 0.0<br/>samples = 3<br/>value = [3, 0]>] ;
26 -> 28 ;
}