digraph Tree {
node [shape=box] ;
0 [label="CAtBat <= 1407.5\nmse = 0.824\nsamples = 210\nvalue = 5.93"] ;
1 [label="CRBI <= 59.5\nmse = 0.295\nsamples = 80\nvalue = 5.038"] ;
0 -> 1 [labeldistance=2.5, labelangle=45, headlabel="True"] ;
2 [label="mse = 0.206\nsamples = 33\nvalue = 4.584"] ;
1 -> 2 ;
3 [label="mse = 0.11\nsamples = 47\nvalue = 5.356"] ;
1 -> 3 ;
4 [label="Hits <= 117.5\nmse = 0.357\nsamples = 130\nvalue = 6.48"] ;
0 -> 4 [labeldistance=2.5, labelangle=-45, headlabel="False"] ;
5 [label="CWalks <= 316.0\nmse = 0.276\nsamples = 56\nvalue = 6.173"] ;
4 -> 5 ;
6 [label="mse = 0.288\nsamples = 31\nvalue = 6.023"] ;
5 -> 6 ;
7 [label="mse = 0.2\nsamples = 25\nvalue = 6.358"] ;
5 -> 7 ;
8 [label="CRBI <= 338.5\nmse = 0.293\nsamples = 74\nvalue = 6.712"] ;
4 -> 8 ;
9 [label="mse = 0.227\nsamples = 28\nvalue = 6.306"] ;
8 -> 9 ;
10 [label="mse = 0.172\nsamples = 46\nvalue = 6.96"] ;
8 -> 10 ;
}